{"ip":0,"fr":60,"v":"5.1.20","assets":[],"layers":[{"ty":4,"nm":"ewaps","ip":0,"st":0,"ind":1,"hix":1,"ks":{"o":{"a":0,"k":100},"or":{"a":0,"k":[0,0,0]},"a":{"a":0,"k":[71,18,0]},"p":{"s":true,"x":{"a":0,"k":101.6199984811604},"y":{"a":1,"k":[{"t":0,"s":[79.028],"e":[31.189],"i":{"x":[0.515],"y":[0.955]},"o":{"x":[0.455],"y":[0.03]}},{"t":80,"s":[31.189],"e":[72.2600001884842],"i":{"x":[0.515],"y":[0.955]},"o":{"x":[0.455],"y":[0.03]}},{"t":120}]}},"rx":{"a":0,"k":0},"ry":{"a":0,"k":0},"rz":{"a":0,"k":0},"s":{"a":1,"k":[{"t":0,"s":[92.5,92.5],"e":[129.1,129.1],"i":{"x":[0.515,0.515],"y":[0.955,0.955]},"o":{"x":[0.455,0.455],"y":[0.03,0.03]}},{"t":80,"s":[129.1,129.1],"e":[54.900000000000006,54.900000000000006],"i":{"x":[0.515,0.515],"y":[0.955,0.955]},"o":{"x":[0.455,0.455],"y":[0.03,0.03]}},{"t":120}]}},"shapes":[{"ty":"gr","nm":"ewaps shape group","it":[{"ty":"sh","ks":{"a":0,"k":{"c":true,"v":[[66.3307,18.2555],[67.6758,14.2681],[71.375,11.5778],[76.8996,10.617],[80.6948,10.9533],[84.2018,11.77],[84.2018,9.65618],[82.3282,4.61191],[77.1398,2.73832],[73.2005,3.50697],[69.117,5.6688],[67.868,3.36285],[72.672,0.864734],[77.4761,9.54483e-7],[84.7783,2.64224],[87.4686,9.94442],[87.4686,21.5222],[88.6696,22.8674],[88.6696,25.4616],[87.1803,25.5576],[85.3548,24.789],[84.6822,23.2517],[84.6342,21.4261],[80.2625,24.789],[74.7858,25.942],[70.4141,24.9331],[67.3876,22.1468]],"i":[[0,1.4091999999999985],[-0.8966999999999956,1.120899999999999],[-1.5694000000000017,0.6404999999999994],[-2.081700000000012,0],[-1.3131000000000057,-0.22419999999999973],[-1.0249000000000024,-0.3522999999999996],[0,0],[1.2490999999999985,1.24906],[2.2099000000000046,0],[1.3130999999999915,-0.5124299999999997],[1.4091999999999985,-0.9608100000000004],[0,0],[-1.5692999999999984,0.5444559999999999],[-1.6334000000000088,0],[-1.7934999999999945,-1.7614930000000002],[0,-3.106629999999999],[0,0],[-0.8007000000000062,-0.032099999999999795],[0,0],[0.28829999999999245,0.032099999999999795],[0.4163000000000068,0.4803999999999995],[0.03200000000001069,0.5444999999999993],[0,0],[1.7934999999999945,-0.8007000000000026],[1.857600000000005,0],[1.281099999999995,0.6725999999999992],[0.7365999999999957,1.1529000000000025]],"o":[[0,-1.5373000000000019],[0.8967999999999989,-1.1530000000000005],[1.6012999999999948,-0.6404999999999994],[1.2170999999999879,0],[1.3131999999999948,0.19209999999999994],[0,0],[0,-2.1137900000000007],[-1.2489999999999952,-1.24906],[-1.3130999999999915,0],[-1.3131000000000057,0.48041],[0,0],[1.6334000000000088,-1.1209500000000001],[1.5694000000000017,-0.576489],[3.0746000000000038,0],[1.7934999999999945,1.7614900000000002],[0,0],[0,0.8647999999999989],[0,0],[-0.7045999999999992,0.09600000000000009],[-0.8006000000000029,-0.03200000000000003],[-0.4163999999999959,-0.48040000000000305],[0,0],[-1.1210000000000093,1.4412999999999982],[-1.7935000000000088,0.7685999999999993],[-1.6332999999999913,0],[-1.281000000000006,-0.7045999999999992],[-0.7045999999999992,-1.1849999999999987]]}}},{"ty":"sh","ks":{"a":0,"k":{"c":true,"v":[[83.0969,20.1771],[84.2018,17.7751],[84.2018,14.124],[77.284,12.8269],[71.6152,14.22],[69.4533,18.0153],[71.0387,21.7624],[75.5545,23.4439],[79.9262,22.5311]],"i":[[-0.7366000000000099,0.960799999999999],[0,0.7366000000000028],[0,0],[2.402000000000001,0],[1.441199999999995,-0.928700000000001],[0,-1.6013999999999982],[-1.0568999999999988,-1.120899999999999],[-1.921599999999998,0],[-1.345099999999988,0.6085000000000029]],"o":[[0.7365999999999957,-0.8646999999999991],[0,0],[-2.2099000000000046,-0.8648000000000007],[-2.338000000000008,0],[-1.4412999999999982,0.928799999999999],[0,1.3770999999999987],[1.0888999999999953,1.1210000000000022],[1.5692999999999984,0],[1.377200000000002,-0.6084999999999994]]}}},{"ty":"sh","ks":{"a":0,"k":{"c":true,"v":[[107.306,25.942],[101.685,24.3086],[97.7936,20.2732],[97.7936,35.6942],[94.5268,35.6942],[94.5268,0.432367],[97.4573,0.432367],[97.4573,5.28448],[101.397,1.48926],[106.777,9.54483e-7],[111.533,1.10494],[115.28,3.98738],[117.778,8.16692],[118.643,12.971],[117.202,19.4565],[113.215,24.1645]],"i":[[2.2420000000000044,0],[1.664999999999992,1.0889000000000024],[0.9608000000000061,1.601300000000002],[0,0],[0,0],[0,0],[0,0],[0,0],[-1.633800000000008,0.9608199999999998],[-1.9210000000000065,0],[-1.4410000000000025,-0.736627],[-1.0570000000000022,-1.2170299999999998],[-0.5760000000000076,-1.569329999999999],[0,-1.6654],[0.9609999999999985,-1.9856999999999978],[1.7289999999999992,-1.1849999999999987]],"o":[[-2.0819999999999936,0],[-1.6340000000000003,-1.0888999999999989],[0,0],[0,0],[0,0],[0,0],[0,0],[0.9928000000000026,-1.5693300000000003],[1.664999999999992,-0.9928380000000001],[1.730000000000004,0],[1.4410000000000025,0.70459],[1.0889999999999986,1.2170300000000003],[0.5769999999999982,1.5373],[0,2.337999999999999],[-0.929000000000002,1.9536000000000016],[-1.6980000000000075,1.1849999999999987]]}}},{"ty":"sh","ks":{"a":0,"k":{"c":true,"v":[[106.393,23.0595],[111.101,21.6183],[114.223,17.8231],[115.328,12.971],[114.079,7.97475],[110.717,4.27562],[106.009,2.88244],[102.55,3.74717],[99.3789,6.00509],[97.7936,9.07969],[97.7936,16.7662],[101.253,21.234]],"i":[[-1.858000000000004,0],[-1.3130000000000024,0.960799999999999],[-0.7360000000000042,1.5372999999999983],[0,1.6974],[0.8330000000000126,1.5373099999999997],[1.409000000000006,0.9287900000000002],[1.7609999999999957,0],[1.2169999999999987,-0.5764800000000001],[0.9291000000000054,-0.96082],[0.1600999999999999,-1.1209499999999997],[0,0],[-1.5698000000000008,-1.2170000000000023]],"o":[[1.8250000000000028,0],[1.3449999999999989,-0.9928000000000026],[0.7369999999999948,-1.5373000000000019],[0,-1.7934999999999999],[-0.8319999999999936,-1.5373],[-1.3780000000000001,-0.9287800000000002],[-1.0889999999999986,0],[-1.1850000000000023,0.54447],[-0.8966999999999956,0.9287799999999997],[0,0],[0.7365999999999957,1.761499999999998],[1.5690000000000026,1.2169999999999987]]}}},{"ty":"sh","ks":{"a":0,"k":{"c":true,"v":[[132.392,25.942],[126.675,24.9331],[122.111,21.8585],[123.456,19.5526],[127.684,22.435],[132.248,23.2997],[136.956,22.1468],[138.829,18.7359],[137.917,16.478],[135.37,15.1809],[131.431,14.0759],[127.059,12.5867],[124.417,10.569],[123.552,7.35023],[124.753,3.31481],[128.116,0.864734],[132.92,9.54483e-7],[138.013,0.912774],[141.616,3.45893],[140.03,5.6688],[136.812,3.41089],[132.728,2.64224],[129.798,3.07461],[127.492,4.41974],[126.627,6.9659],[128.116,9.75226],[132.632,11.3856],[137.58,12.9229],[140.847,14.9887],[142,18.4957],[139.358,23.9723]],"i":[[2.882000000000005,0],[1.7620000000000147,0.6725999999999992],[1.3130000000000024,1.345200000000002],[0,0],[-1.4089999999999918,-0.6084999999999994],[-1.6020000000000039,0],[-1.2169999999999845,0.7686000000000028],[0,1.4731999999999985],[0.6080000000000041,0.5123999999999995],[1.1210000000000093,0.3201999999999998],[1.5369999999999777,0.41639999999999944],[1.1850000000000023,0.5123999999999995],[0.6089999999999947,0.8005999999999993],[0,1.31311],[-0.7999999999999972,1.0889200000000003],[-1.4090000000000202,0.5444559999999999],[-1.7609999999999957,0],[-1.474000000000018,-0.6085149999999999],[-0.929000000000002,-1.0889199999999999],[0,0],[1.2809999999999775,0.48041],[1.4729999999999848,0],[0.9279999999999973,-0.2882499999999997],[0.6079999999999899,-0.6405400000000001],[0,-1.0889200000000008],[-0.9930000000000092,-0.5124300000000002],[-2.0180000000000007,-0.5763999999999996],[-1.4090000000000202,-0.5123999999999995],[-0.7690000000000055,-0.8646999999999991],[0,-1.5052999999999983],[1.7609999999999957,-1.3131000000000022]],"o":[[-2.049999999999983,0],[-1.7289999999999992,-0.7045999999999992],[0,0],[1.4099999999999966,1.3130999999999986],[1.4410000000000025,0.5765000000000029],[1.9210000000000207,0],[1.2490000000000236,-0.8006999999999991],[0,-0.9929000000000023],[-0.5769999999999982,-0.5445000000000011],[-1.0889999999999986,-0.3202999999999996],[-1.7290000000000134,-0.48040000000000127],[-1.1529999999999916,-0.5445000000000011],[-0.5760000000000076,-0.8327500000000008],[0,-1.6013599999999997],[0.8329999999999984,-1.0889199999999999],[1.440999999999974,-0.576489],[1.9220000000000255,0],[1.4729999999999848,0.6085160000000001],[0,0],[-0.8640000000000043,-1.02487],[-1.2490000000000236,-0.5124300000000002],[-1.0250000000000057,0],[-0.929000000000002,0.25621000000000027],[-0.5769999999999982,0.6085200000000004],[0,1.3451399999999998],[0.992999999999995,0.5124399999999998],[1.8899999999999864,0.5124999999999993],[1.4089999999999918,0.5124999999999993],[0.7690000000000055,0.8327000000000009],[0,2.337900000000001],[-1.7620000000000005,1.3130999999999986]]}}},{"ty":"st","o":{"a":0,"k":0},"w":{"a":0,"k":0},"c":{"a":0,"k":[0,0,0,0]},"lc":3,"lj":1,"ml":1},{"ty":"fl","o":{"a":0,"k":100},"r":1,"c":{"a":0,"k":[0.47058823529411764,0.4588235294117647,0.4588235294117647,1]}},{"ty":"tr","o":{"a":0,"k":100},"a":{"a":0,"k":[0,0]},"s":{"a":0,"k":[100,100]},"p":{"a":0,"k":[0,0]},"r":{"a":0,"k":0}}]},{"ty":"gr","nm":"ewaps shape group","it":[{"ty":"sh","ks":{"a":0,"k":{"c":true,"v":[[12.5386,25.942],[6.10117,24.1645],[1.63339,19.4084],[0.00000602517,12.8749],[1.58535,6.43745],[6.05313,1.77751],[12.4906,9.54483e-7],[18.9761,1.77751],[23.2997,6.48549],[24.8851,12.8269],[24.837,14.124],[3.41089,14.124],[4.9482,18.928],[8.263,22.2428],[12.6827,23.4439],[17.2947,22.1948],[20.3693,18.928],[23.2037,19.6967],[20.8016,22.9634],[17.1025,25.1733]],"i":[[1.6334,0],[1.8896000000000006,1.1849999999999987],[1.0889199999999999,1.9857000000000014],[0,2.369999999999999],[-1.056896,1.9536599999999993],[-1.8896000000000006,1.1529700000000003],[-2.402000000000001,0],[-1.857599999999998,-1.185007],[-1.0248000000000026,-1.9536500000000006],[0,-2.306000000000001],[0.032099999999999795,-0.3523000000000014],[0,0],[-0.8647400000000003,-1.409200000000002],[-1.3451300000000002,-0.8326999999999991],[-1.6013000000000002,0],[-1.4412999999999982,0.8326999999999991],[-0.6085999999999991,1.3451999999999984],[0,0],[1.0888999999999989,-0.960799999999999],[1.409200000000002,-0.5443999999999996]],"o":[[-2.402000000000001,0],[-1.8895999999999997,-1.1849999999999987],[-1.0889229999999999,-1.9856000000000016],[0,-2.338000000000001],[1.0889199999999999,-1.9536500000000006],[1.8895999999999997,-1.185007],[2.466099999999999,0],[1.8575000000000017,1.185],[1.0568999999999988,1.9216300000000004],[0,0.5123999999999995],[0,0],[0.16013999999999973,1.7934999999999999],[0.8647299999999998,1.3771999999999984],[1.3451400000000007,0.8007000000000026],[1.6334,0],[1.441200000000002,-0.8326999999999991],[0,0],[-0.5125000000000028,1.2169999999999987],[-1.0568999999999988,0.928799999999999],[-1.4091999999999985,0.5124999999999993]]}}},{"ty":"sh","ks":{"a":0,"k":{"c":true,"v":[[3.31481,11.77],[21.8105,11.77],[20.3212,7.01394],[17.0064,3.74717],[12.5386,2.54616],[8.07084,3.74717],[4.75603,7.01394]],"i":[[0.12810999999999995,-1.7935499999999998],[0,0],[0.8646999999999991,1.3771699999999996],[1.3451000000000022,0.7686600000000001],[1.6334,0],[1.345139999999999,-0.8006700000000002],[0.8647400000000003,-1.4091899999999997]],"o":[[0,0],[-0.12809999999999988,-1.7935499999999998],[-0.8647000000000027,-1.4091899999999997],[-1.3450999999999986,-0.8006700000000002],[-1.6334,0],[-1.3451400000000007,0.7686600000000001],[-0.8327,1.3771699999999996]]}}},{"ty":"sh","ks":{"a":0,"k":{"c":true,"v":[[60.7831,0.432367],[64.0018,0.432367],[53.2407,25.4616],[50.4063,25.4616],[45.1699,13.019],[39.9815,25.4616],[37.1471,25.4616],[26.386,0.432367],[29.5567,0.432367],[38.6844,22.0987],[43.2963,10.8092],[39.0687,0.480407],[41.9992,0.480407],[45.1699,8.59928],[48.3886,0.480407],[51.2711,0.480407],[47.0915,10.8092],[51.7034,22.0987]],"i":[[0,0],[0,0],[0,0],[0,0],[0,0],[0,0],[0,0],[0,0],[0,0],[0,0],[0,0],[0,0],[0,0],[0,0],[0,0],[0,0],[0,0],[0,0]],"o":[[0,0],[0,0],[0,0],[0,0],[0,0],[0,0],[0,0],[0,0],[0,0],[0,0],[0,0],[0,0],[0,0],[0,0],[0,0],[0,0],[0,0],[0,0]]}}},{"ty":"st","o":{"a":0,"k":0},"w":{"a":0,"k":0},"c":{"a":0,"k":[0,0,0,0]},"lc":3,"lj":1,"ml":1},{"ty":"fl","o":{"a":0,"k":100},"r":1,"c":{"a":0,"k":[0.09411764705882353,0.8235294117647058,0.7294117647058823,1]}},{"ty":"tr","o":{"a":0,"k":100},"a":{"a":0,"k":[0,0]},"s":{"a":0,"k":[100,100]},"p":{"a":0,"k":[0,0]},"r":{"a":0,"k":0}}]}],"op":120}],"op":120,"w":204,"h":63}